0.5933694044147492
-0.29837356088102196
-0.629977648470777
0.6329112895759272
0.15469458435251943
0.38579193366239545
0.6848624025136677
-0.0868014090733642
-0.40825897907698044
0.9575192348076483
-0.25995016468796206
-0.9559379625305988
-0.18635450124581376
0.09464814805000425
0.7639193003569362
0.6791263563115083
-0.35534576223191916
-0.19822349650416848
-0.6710217581141811
0.9032917560498823
0.945647485587224
-0.8900714543736473
0.24236262882918877
0.8607647234037099
0.9122662109400625
-0.5121351263421328
-0.5946030590175179
0.09227871319230757
-0.5364825022691039
0.4438403867618333
-0.8827089819874083
-0.4164197787596165
0.24453930723196668
0.43979671253927693
-0.689014008377198
-0.39526266323187764
-0.12278079576740493
0.5588615854351169
0.6549981336716107
-0.32992310235371236
-0.8001907877587099
0.5465640461122161
-0.8198168459021252
0.5681429445607276
-0.8695949030725004
-0.9725760517936105
0.05406138138550659
0.2809945139586502
-0.5635020435020631
-0.7852942737489841
0.532084172516312
-0.043367494100205864
0.1605010940721569
-0.5950475591596216
0.7171041162085297
-0.5526360004859387
-0.12347710016629805
0.7201415907985128
-0.24253309373569423
0.03986755641933743
0.8813396047658947
0.0039409951724543296
0.3498324876242296
0.8615571052012331
0.5738541031461458
0.7514455012580864
0.048106184850439604
-0.7604899335971989
0.7935723240042734
-0.1331158594337003
-0.2725384222907153
-0.20701537819504304
0.6949980207622297
0.729759430827842
-0.1878061794565462
0.42054635824326936
-0.17713086785987364
-0.38943671947406244
-0.6129253170418395
-0.5513691915145358
0.5270872161650724
0.7306760578858421
0.10217201839772391
-0.7042067302795589
0.5817484991457871
-0.6093255822186889
0.04991462010729636
-0.34037339482034507
-0.08969856563592656
0.6643775851155974
0.09703922907934426
-0.018608235995143677
-0.277956874898416
0.7104857430334146
-0.9334900357369986
0.22550271068422473
0.04200023561061345
-0.4600023430561361
0.19816192861538853
-0.6633281340995343
0.5368069550463598
-0.7081428462164664
-0.3443787255766748
-0.23961720015185217
0.030281495259294022
-0.6381625122916379
0.7350525453538127
0.18456681082968307
-0.5496472452515206
0.7449640292795389
0.22405834430592855
-0.5419186919831859
0.15327859672195024
0.6423947668515719
0.8883605897850748
0.01871581262257161
-0.38106814042422676
-0.7265749416250729
-0.37996590977727895
-0.49668781822892133
0.17975935481314337
0.955860433248398
0.7713775051635093
0.28138959619964216
-0.7520706218283875
0.1023383206389119
0.4802952586513851
0.6144749111662853
-0.2654760802941041
0.5671643802016919
0.3200021412303625
-0.16752398006107275
0.8188246075090594
0.9035573576124446
-0.37897500873441237
-0.5222731197838121
0.05860646728559771
-0.4203742743540403
0.9281063777021894
0.7098939537670731
-0.10820509720959902
-0.09138658453023278
0.6054827475869607
-0.537854757593553
-0.873354080290944
-0.4212249317334806
0.4613610615735081
0.763218339699413
0.6171337493661834
0.9628583412360118
0.40485515896368557
0.4695180127163085
0.5051976911014823
-0.7445563602595358
0.5967311115563461
0.2840225221909835
-0.3197298761163802
0.22160347474334974
0.3482233383786031
0.2419235309453687
0.879323344559085
0.0027814672984854184
0.10006372230640073
0.23669190285265373
0.7628409519304225
-0.27062431763245115
0.215652451711659
0.023613282708206014
-0.3412026538006677
-0.08026290703344857
0.0489822774320956
0.16256333366571815
0.2738029822342032
-0.3650808246266253
0.7296389080608999
-0.12695612127608547
0.5883596793327582
-0.7588331919346643
-0.46723229022868534
0.3830241208979839
-0.5711237017691104
-0.8192120050952577
0.2270387904256537
-0.4609326186835942
-0.26649392665368504
0.6432381998329456
0.8889977901022255
-0.3842151876519958
0.40461167640522516
-0.6823368199573234
-0.1638814632202165
-0.813249366096938
0.8404170899120439
0.4184058498291951
0.003449759693770034
-0.44598143070687146
0.7125221067117187
0.08014133119709459
-0.07727074080746658
0.8991956809458054
-0.6231808707448612
0.981312953981144
-0.28450269767087005
0.578985634543564
0.41963554449514945
0.4558723096528395
-0.9317858567760893
0.21228242156750443
-0.739451651176795
-0.2884621705367951
0.8635728148953657
-0.8533887740043813
-0.52145984190791
-0.972316371451071
-0.5333972554296531
-0.3380125008825568
0.6370083988618993
-0.46930994154332173
0.01813573147641704
-0.007716027809940977
0.6800089631962484
0.08095874184100071
0.8757382515671255
0.513405359551975
-0.3565929141136311
-0.6661748178470643
-0.5555176061229959
0.7244008252653966
0.5664544895459013
0.37668361903407677
0.06978022108298002
-0.23985411966972103
-0.44930176140040573
0.5882649105006952
-0.6940381445837905
0.9329470704642571
0.8088258800967494
0.37568436333716915
0.9698744637592834
-0.49219961210920726
-0.7809846368189901
-0.8000714661811168
0.6864610418362428
0.4030508184148045
-0.6603998465335618
0.08877455807453427
-0.7085995819858912
0.7663153749376805
-0.7134568337833624
0.05371339567988189
0.44496142385949566
-0.4711073012664391
0.8061284147551661
0.32322511587480834
0.005914015454363064
-0.0927997767340291
0.978568660850615
0.23495514252464342
-0.547974794543655
-0.450536531074559
0.5942107564716302
0.5022676643668516
0.35169420261810785
0.6776914691706091
0.9532607736387867
-0.5850395702278353
0.24272008534901637
0.6799361644694871
-0.9983139988155995
0.8323760552771605
-0.24365440923154694
-0.877445553795559
0.14253332193738197
0.34715249530886305
0.6180429232679647
0.7647051121908555
0.8130468255424768
-0.991239588139518
0.39984670825646446
-0.7537464393565985
0.9407001396986612
0.9697733266253762
0.2522826186846209
-0.4568348337472625
-0.1486270863536594
0.2207174206456977
0.7385137069373322
-0.22974393019622097
-0.29726229454944897
0.0951567650324437
-0.16023235123775312
0.12924951606933216
0.7642878248487429
-0.35853255539992596
0.7709678909892058
0.8634060055503769
-0.07335039587251613
-0.8449839068115201
0.7930703870288501
-0.17502973350217338
0.6088112631388077
-0.8394335644930607
0.33689624633330584
0.1590641872429237
0.07918084443846364
0.979758972634891
0.0831320800073147
0.7978737040242434
-0.5167896113762603
0.5888446949004335
0.2259669629551105
-0.04841859026324126
0.42874982869212036
-0.9273880012105361
-0.7930155717969443
-0.14082577534136198
-0.1729539299824383
0.010866811627442371
0.40155279140328515
-0.13341247480254462
-0.13472065943646996
-0.5868891362294811
0.8667948172635217
0.796803243882581
0.5617632619842022
0.6063171454975222
0.1357722954171926
-0.06928780135404942
0.013061316294996326
-0.8314312072080422
-0.653457909787047
-0.5325870932532123
0.7271102942324138
-0.4400162399022103
-0.6903532161419889
-0.6809033726612536
0.6974970767227358
-0.61450766988214
-0.7788068900714965
0.1980994259730619
-0.18965792899227196
-0.6346610379749378
0.6902505086451991
0.690666843530637
-0.9571693878275586
-0.9212395684303275
-0.7205072505758915
0.6195691757960087
0.3993383734788431
0.2082117352872231
-0.4937778997956071
0.42447931070248585
-0.7967631478823471
0.7262833086691578
-0.6013815362893242
0.52617719183089
-0.6974667994038473
0.6846385476318848
-0.9677183674241912
-0.37118033391177285
0.09215595961115647
-0.36924636346924317
0.21962005053323705
0.8688462680679713
-0.11561484055910816
0.541046326970577
-0.4534322437693142
-0.7398157912494724
-0.9393062706347225
0.10329023240272982
0.29478471598115213
-0.527554808350154
0.6932062576526453
-0.2917562706438088
0.41451421189089155
-0.783174918982901
-0.09049891929974874
0.025928793341426486
-0.3041011400979267
0.5924433262534072
0.08022387198081125
0.32206161188110016
-0.41885162490747785
-0.24268859907349072
0.16440453683652606
-0.3598069909160443
-0.4084137627935956
-0.10338305414395789
0.9759386267261168
0.9732239701670004
-0.7005567648377525
0.08998222672340803
-0.9856813502871442
-0.8229147552618822
-0.06853905366589315
-0.997120619929709
0.505705729877626
0.9056527310235406
-0.6695307865633379
-0.5217573618685021
-0.12691830777038757
0.19839012120018554
-0.3608038413755739
0.12457406188367261
-0.4685857979269278
0.4019201283858704
-0.5480525486656768
0.7214432935487225
-0.1142438616480595
0.19348947331987798
0.4733431684754674
-0.029741399911077927
-0.07477217463252919
0.06169829397867269
-0.4572662327755981
0.38484264810592483
-0.6018830387336747
0.35406094853383197
0.045483505147759236
0.5092139460913682
-0.4482041784865799
0.21516383046833448
0.011853038422206587
0.5729785694910917
0.7399091345193554
-0.9385584870915894
0.01329813882587242
0.6159268678331528
-0.17533448493259396
0.2076284182659109
-0.07485169699690442
-0.3236188450675854
0.2464337317510016
0.012433750693536805
0.0315850988128425
-0.6739070788951856
0.8159930107660063
-0.2635621846089067
0.5268798525539242
-0.1549599276518756
-0.06020902559691641
0.47628399250586395
0.4729007505236584
-0.30805260048919725
-0.2709906886082696
-0.9457359181114623
0.5412994704189353
-0.3452601091057087
-0.21054638668633865
-0.30946073648798195
-0.5342161570484125
0.9101873173683294
0.8036678397788705
-0.8592106285772355
-0.031113804564416796
0.7121222500596577
-0.03517283191952953
-0.18682953567561147
0.2853121957005197
0.7768649310371996
-0.627050531341167
-0.3028474622783864
-0.29629402707686703
-0.37282060464707384
0.9526793377383052
0.46594217112263725
-0.3514242390030478
-0.8855551724309189
-0.8117001675428712
-0.9076255554639865
0.7474604350050819
-0.8559142649475849
0.033983162710688276
0.30660311701442766
-0.07488894023547506
-0.7701139887236115
0.7316199613742703
-0.9382330591440423
-0.6805119602095335
0.8545332791594147
0.9554538845725888
-0.3906130037799176
0.8325214175331166
-0.9594076646533328
0.636891444156258
-0.6926187814591435
0.6529859947402205
0.24436145536222212
0.26619701294942155
0.3607245538792022
0.6520806473246864
-0.05673065384545222
0.895982519977185
-0.18635210267658617
0.7357166324197318
-0.45827545939938763
0.19807697675115077
0.8269449579547423
-0.5437942104436765
0.05935272718058237
-0.9824310966132668
-0.9725391418087161
-0.16497093632126414
0.11762225896349857
0.5128966075193269
0.041912276939456705
-0.5187245020068261
0.9064896235536545
0.8020190805833798
0.6737026726376064
0.05338339147673457
0.8458627275920143
0.24083054309493707
0.24255419775418155
0.08571317395926442
-0.8515564237916513
-0.09531962417175725
0.42344516496636114
-0.28189870413849594
-0.7183457352763175
0.7286119266677661
-0.2849489798813913
-0.6071448943094349
-0.4873320576147006
0.8136296072640247
0.1283284831516622
-0.09376567575454804
0.9505278607611032
-0.13112262582421047
0.9777159707102187
-0.8643898834622746
-0.5396511619759243
0.475362028836236
-0.12346080352627543
0.8818227864759467
0.6579102595796688
-0.013340097903331094
-0.13113981949154707
-0.24866144982656113
0.7068464026801223
0.1496196103687457
0.5593212065227399
0.7271407194778736
0.16403968643394465
0.2627671407009694
-0.5735526348178779
-0.7430145179087306
-0.7577975168146136
-0.26492235313952456
0.20614516276636008
0.9723499050951947
-0.9710896285280628
-0.9161078382496847
-0.9063317486845583
-0.04179050013269835
-0.11933340580717205
-0.8314504432013788
-0.19366151937789258
0.4975993800756329
0.05504819876138978
0.29414366820613214
0.19932604265119258
-0.500446528024226
0.004235113001849986
0.10017452933136237
0.8150350523304805
-0.46925767787350176
-0.9030855009718335
-0.2793799294428271
-0.7901988062474068
-0.6597077455129701
-0.4222522811420102
-0.4958038730789759
-0.8702615060938375
-0.038405591482407485
-0.3529108817029851
0.885931802265795
0.7078596785927213
0.1622843849714625
-0.9979356233405133
-0.6510523243513818
0.7092819249955942
0.8456030309968542
-0.9578237222728567
-0.6611380504844416
0.5874274529350625
0.2508220870998684
0.9913681449098877
-0.9400239605725581
0.5830424748329006
0.31762661371255996
-0.38830127363817285
-0.4907974204339859
0.4405759360019315
-0.5952968018174288
0.9788898064975716
-0.11690250425971044
-0.5228008806204507
-0.2575870599934378
0.6535060684471378
0.5080014713692143
0.6081315962890345
-0.5999996677526725
-0.7680608336885976
0.8325927603373322
0.7984803422797548
0.3873116119611104
-0.44365788005342255
-0.24424942122374577
-0.11944035285247834
0.5552597295505817
0.22405137001975106
0.3931577745300948
-0.8438523868767802
-0.6193327288141194
0.9663002896001089
-0.07343684291263641
0.30373863371136806
0.42660113729506893
-0.5990384677513019
0.6148476747739315
0.2098518018420028
0.2801871553721482
-0.704430687215906
-0.9804580756638104
0.09859731101853347
-0.8263591887495221
-0.08162953224426707
0.8236141870746142
0.020928190593983938
0.010354417206625994
0.4594469938523512
0.05934455698554029
0.14698285873462566
0.6630191955929371
0.45699418064110386
0.5243272118046161
0.661175437175706
0.4922088995679858
-0.8002967613282415
-0.7079566730030461
0.013470571695824107
0.80184684652366
-0.25407220970392136
-0.2589579835739213
-0.7117988332573754
-0.2896018619265859
0.7888158388667978
0.31791236658112154
0.019202972912320298
-0.8255907709947785
-0.15721654522137093
-0.5916819463688996
0.43539863192168404
-0.4706492358278796
0.5633223136068841
0.047296171855236796
0.2962172642507012
0.5005631241058608
0.8191677007564458
-0.9893258277714031
-0.2763205918213046
0.09040007924256965
-0.9593485978221608
0.9000452193540507
0.33431904752761044
0.9816682470996193
-0.06778687116717907
-0.9126037913197269
-0.280116187608431
0.9705613760176185
-0.9690241236860576
0.2142971903819105
0.9703207846604482
-0.9596215013833609
0.8783118631683591
0.8430797086444856
-0.8076192448432906
0.011577309722262202
-0.4310652165134767
0.1804095391043512
-0.6717183062037488
0.5245795902460728
-0.7413406677594109
-0.5609917608541121
-0.5439518587543575
-0.9712081467934682
0.03745191910693168
0.2947910418391458
-0.3525127443761291
0.883520293572817
0.7995882451826719
0.1968748782956111
0.07797230955135723
0.22699252012570473
0.3102762879800423
0.739383041124128
-0.4874171849123182
-0.6298861400706431
-0.4810526361174956
-0.6441441568824963
0.6123831251818151
-0.4192704600980526
-0.7029787368933713
-0.46603594717342267
-0.5610798648726272
0.841917619934789
-0.6495913911629256
-0.4778332028777255
-0.3485615841840979
0.027730644068601783
0.699081226550725
0.9855173134867294
0.297532962450349
-0.8802272221653719
-0.6191903646154879
0.5408261915819127
0.8784190676863508
-0.3276724335585305
-0.6480604566191605
-0.776312883290273
-0.46104088265065585
0.5159386278941052
-0.7125391833228212
0.8653686253252899
0.35652784715793157
0.8778656563094095
0.06022344018778896
-0.6403800983173494
-0.24253523230147245
0.5544502441363361
0.07746207211568745
-0.8312082822288155
-0.21484186717281542
0.4995640324971542
-0.8674453192223159
-0.9148235644498496
-0.5453462906954809
-0.6075132300898576
-0.2868050174602666
0.31511616663950326
0.97128062072566
0.0037448097853417656
-0.37402502886087374
0.17162212943337285
0.6043912490726379
0.016743303678696607
-0.2227144603358349
0.36939818801569835
-0.8095610314144268
0.8766703267680278
-0.44306888137355316
-0.2159056271786877
-0.09044103157010903
-0.2683276327405661
-0.2916067505159564
-0.19077482669396914
-0.2724112968577558
0.9651807200864446
0.9745886434641261
0.0066953631977017996
-0.7278096728655362
2.3725394930418784E-4
-0.2323676005646067
0.5946360349265609
0.24831249541579403
0.1725162406781857
0.1946381483608146
0.5121029644811357
-0.5781374690902348
0.142926211612308
0.29830916095302634
-0.7150836814308179
0.3143710049502522
0.2012388342951925
0.12227579358569134
-0.23676235980772722
-0.7901030973292013
0.9791752283579293
-0.5923285025550599
0.8225470522042455
-0.27860287973624204
-0.29508657324837206
-0.05426418084156341
0.6939749106379596
-0.4783687709285251
0.8993784803973709
-0.34467657983056327
0.1950513579749375
-0.17241105576641194
0.571645530727184
0.09074311392040113
-0.7375548063299322
-0.7011353905814152
-0.538932319055548
0.867766938593031
-0.39506574963122404
0.7632023883041268
-0.33400334748008764
0.7736141783599113
0.792034036942648
-0.34918855149795686
-0.014717532183246895
0.6378321084650207
-0.6520232368461124
-0.4316094449693737
0.8439403212389608
-0.9834637085363026
-0.49688031122947185
0.48676328532587265
-0.7341442098840145
0.6787523417119202
0.9919158903708676
-0.9084928736946514
0.4523317070146129
-0.5409289998664292
-0.8033460983202301
0.7273157135014672
0.8528332816794328
-0.4231345213865524
0.13762513009549443
-0.15003516989298016
0.18707903377864032
0.8257528612979101
-0.5518118442685842
-0.48971431469471477
-0.9789606680152305
-0.9403614877637065
0.2799981248069228
-0.4319525658942579
-0.46768010934042803
0.4189310024271353
0.24419921622881308
0.36552552564376956
0.9176689970722236
-0.6040252116711594
0.08607396417779754
-0.36488144929195715
0.6190290081618495
-0.5698391176588076
0.495700558847813
0.8746200318767521
0.9128493541278087
0.014555431008968462
0.621833516826427
0.19945002589492583
0.7540738778636636
0.5315353071905737
0.31544860931754326
0.7648757565368389
-0.21600442897269434
-0.03784430299109947
-0.2228885471242048
0.13529451496803352
0.44073571689551094
-0.5434998234171292
-0.5139864350488293
-0.08933032055004039
-0.3692926127430352
-0.7415082972257545
-0.4935325204603178
0.5766623304688361
-0.8513007705170732
-0.9543572092356185
-0.9594683856265005
0.25355990732393013
0.19570222034342408
0.8009015821086692
0.09545660016508535
-0.693191462416393
-0.35017511885869346
0.5331761406264666
-0.6530824256805994
0.04818718990557991
0.5490575297743203
0.8940992018678473
0.04699552127957765
-0.329750711914584
0.19571066332608444
-0.5275250410357832
0.6182912622437228
-0.48916286689993954
0.6927064663426075
-0.9834344731617132
0.8518891465922785
0.2608715416538949
0.31845940130087863
0.10620452979657463
0.307134531068183
-0.7586140372372463
0.14691292100039668
-0.09365571536226891
0.1723640391112015
0.10691418883154853
0.5767490365304383
0.5692097471842524
0.20828867517849056
-0.5410606250639288
-0.9746139621778059
-0.4201605382576051
-0.23518001891675716
0.5943421616425034
0.9737104503829858
-0.2153526945951254
0.7689026836263662
0.541196904490407
-0.3468464196151867
-0.5822582426957765
0.6366452385679471
-0.18643682526113148
-0.5976773648680985
-0.6667869027413825
0.4696073352199513
-0.22000725235562105
-0.7230254919980095
0.8447463280467531
0.7570590226422701
-0.37549414773321166
-0.09605286237907101
0.25063500963438323
0.7164873409319831
-0.13026827754003348
0.8882442995064314
-0.226422675562674
0.874020129449667
0.09082923730193689
0.9192776994655565
-0.9734340984091696
-0.8514208026765255
-0.8575248773630679
-0.289791152848615
0.3885341553879589
0.6446460168536762
0.5551900829861598
0.5091343246986644
-0.3234480284631536
0.7637017282746819
-0.08528199479281605
-0.6258611096140304
0.3622903399832295
-0.25189128023633184
-0.9027080847875495
-0.33403298541069903
-0.728066744853699
0.8063064225335186
0.06790662675814257
0.35544290811553864
0.13194159133447408
-0.8595685891385225
0.5342630574352926
-0.42101209197021383
0.7116399645526901
-0.20433925876802392
-0.78477165070259
-0.34727398136709353
-0.7146087838852802
0.09756075940304809
-0.2323861182768538
-0.8362388273671327
-0.833450369660028
-0.3641649318159037
-0.5230926324064323
-0.6858316795000095
-0.25924968694622397
-0.7585053914474739
-0.35533232258860104
-0.4377782563862897
0.9800264841131233
0.21059678232563617
-0.5994448510014703
-0.18802077678905627
-0.253122461997627
0.17474251566186794
-0.8935267619406354
-0.9812559970563973
0.42784290425615984
0.3768096480385449
-0.13203076077452952
0.7904040370905279
-0.6691347934859261
0.9462271263505381
-0.20110843951918742
-0.19680139751656467
0.14422658253165085
-0.22794147725543026
-0.3882550707050181
0.2770467276636143
0.30820833129340924
0.9240566842761249
-0.07037728228967266
-0.449022445863843
-0.3988511034032921
0.3387474464577121
0.2007355137838379
-0.15455399576110135
0.44557034479108504
-0.6599374517658458
0.546896921000842
-0.22320449527190173
0.4856096372598974