-0.4753302677734558;0.994404684523166;-0.5132151265512688;0.8804367694767816;-0.3858347273491555;-0.7100949286395382;-0.06696492575492485;0.5336033714697084;0.7807051396445943;-0.10518281566623437;-0.16900627842515067;0.18261667585242194;-0.37202961616866764;-0.7775781051130638;0.3018464347837417;-0.3354202974531626;0.6686428591502871;0.4770814644593686;0.5972528593602251;-0.3460510330195909;0.1144397456825148;-0.42903022424413373;0.4963412910277972;-0.9595396252297463;-0.8338279808636229;-0.6359293375815545;-0.3104090162742403;-0.5843907870986844;-0.8442921444206815;0.37301623576980464;0.7071892917780714;0.7651426034132591;-0.3069106550366501;1.000999925371111;-0.3656850785881944;-0.42705035093004967;0.8249089979118307;-0.510621260520205;0.24096656544877249;0.0785938344911945;-0.5426627775884975;-0.6213530106961282;0.3184255794083426;-0.2952764677682375;-0.6941732890838095;-0.14509523394582188;0.8684751850858371;0.8339317571143618;-0.2829571773640141;0.3064923610073841;-0.30566993709126944;-0.5731357502659638;0.3180634567521033;0.5107477183189828;0.8846183477315306;0.2118743132109381;-0.16986049252135096;0.26176114039978093;0.1185750763514449;0.8005894716919175;0.13723415021811758;-0.7288394032609802;0.19998340840513487;0.6606418296574675;-0.40952548291179197;0.6867750949624922;-0.4083347274969418;-0.6845362797957708;0.7607583352918559;0.1311921137312333;0.35202048900315647;0.21982859984886366;-0.8883566529028208;0.9698524939807465;0.6609573212856795;-0.7416240703170871;0.6726409836013967;0.8821636348214636;0.3089112649237216;-0.21367624155521506;0.13889686355067468;0.5398185260531926;0.37989060375977296;0.728474450538274;0.17616694240826544;0.3614759524064187;0.8240095188789544;0.39385979876644406;0.0723680584585231;-0.2283796874616388;0.644256981668224;-0.2252617520185226;0.6589155848675606;-0.21627651618556162;-0.4393065044552826;0.5257382458146329;0.6124890159403829;0.3075632740370065;0.3871910232082218;-0.8880071749823109;-0.1558379142475277;-0.9053710549826905;0.27043251248598466;0.2746262791078316;0.11592109587950272;-0.5627612520340053;-0.7225770761706017;0.376579668045434;0.9551719219346848;0.5863626179522083;-0.9983150615942892;-0.5133946218876615;0.35160629597482;0.5646099532282378;-0.36921225579200645;0.20435992899228336;-0.3361858842406766;-0.5705323712391221;-0.2377992080595925;-0.28711594843151367;0.5789074177769082;-0.7139713834310059;0.2912327200029707;-0.18013399423895202;0.2367631351138238;0.6270609218597314;-0.384699123755705;-0.34410442614822917;0.7172456677050867;-0.7601117698292063;0.24707473051415318;-0.8636486365161907;-0.44158460377629394;-0.20162755222677828;-0.48024732129841863;-0.1779148259478375;0.08518636201241811;0.9472946438802622;0.5228350859750724;0.48379163671466346;-0.10124044852219928;-0.6609257601729814;0.3547887086829525;0.6704676785774873;-0.09030610122782348;0.04650936755251476;0.1542735873068641;-0.3432129627466393;-0.2816012133890842;0.48510575723231825;-0.19090026050578418;-0.3157052211734061;-0.6252303476332022;-0.18473139293145968;-0.2891676556967257;0.34522259984904957;0.20450482297076158;0.4683733624144503;-0.9819366543641288;0.24333676750399774;0.5250079622889894;-0.4127129377621022;0.47200963120046463;0.028972634862113298;-0.5228646770811072;-0.5026808431405667;-0.6151124498570512;0.17980433835621065;0.5469306102957376;-0.6087170969496302;-0.0025039784399811804;0.662269432673102;0.7427506207346775;0.055763524098194406;-0.5031962438876477;0.6277346479636093;0.5767880623514876;0.30506508972470686;0.26101445935950096;-0.29993041689888017;-0.5022561080809933;-0.5001138555139005;0.10005452934516913;-0.7336118737207682;0.8089928892526184;0.29560121495166847;0.20207768773397752;-0.4915543103026096;-0.5961443495215385;-0.39853608348520525;-0.6170010102455713;-0.7374106081310894;0.2629176575057832;0.11143844580203709;0.38776889079088966;0.7585912941920268;-0.5380641226892535;0.5780319170674333;0.8933432735225932;-0.6515880245644365;-0.5693838893917542;1.0141294468461546;-0.8127667972048822;0.07692872077103494;-0.7612820414053888;0.7176024219252257;-0.3305025291660921;0.939482961438684;0.029385351276789883;0.7676446219864084;0.3956375858328404;-0.6418705467680295;0.7876938092717951;0.5353355979459925;-0.6682770424922091;0.4854612228131045;-0.7618447557601744;-0.5020783942499399;-0.5491291135883574;0.8503086221955753;-0.48415119071122853;-0.1941016939977518;-0.07507760059657867;0.5727680979090327;-0.828455726336871;0.013165767654221366;-0.09662477037945887;0.7988386762276114;-0.4071677563210779;0.13035914894677628;0.4877423473989863;0.9243751069923634;0.0964902940815277;0.4169256461991385;-0.21367643415470403;-0.9233922448078011;-0.3242712030276773;0.511723382810275;0.8033372771498541;-0.37896541565794695;0.14692592714225264;-0.5302685916993207;0.12120041601025265;0.5522351437049557;0.1558708570162902;-0.7652290405379951;0.9112378620039342;0.6439080164535678;-0.5476740204300112;0.7886276605854743;0.7033983971700359;-0.4325570484104445;-0.8073954614470866;-0.5945870665699602;0.0013440214014018548;0.7679214395336176;-0.6151794274700317;0.8044825694314985;-0.7073350849766107;-0.6837269823385906;0.793949904530894;0.716319624496459;-0.25013345163523704;0.9294439949120916;0.2854375497985486;-0.1737486296244661;0.8994012367599796;0.3956830248763905;-0.30536812027515986;0.3864886109973975;0.06412524317655473;0.2774760026644604;-0.021422550800230714;-0.14958375316440867;-0.16983524552017115;0.11536416886985719;0.981196800073997;-0.26436273149160944;0.3619657991781307;0.6712387735836922;0.48649353056483813;0.5902119728419273;0.2582284860697981;-0.48316522999566386;0.3850909210288511;-0.14990170540707584;0.4813791981073692;-0.8889816283654641;0.23291814012638057;0.9172601782449588;0.8935333232985824;-0.7240901891178696;0.376718733137928;0.13324220477667983;-0.7530661655437725;-0.8813498166947917;-0.3671388571723913;-0.36793162473269625;0.7350776871734798;0.867089800139732;-0.11174289706387347;0.6174143996845011;-0.31499314502631204;-0.9722177847864242;-0.8283290643682253;0.6523216961355158;-0.4778642266938535;-0.22316237082531024;-0.6440517409389706;0.27748135519349476;-0.22858112151659507;-0.6847769691949966;0.9713546774373129;0.8810290254784297;0.2654629246375411;0.4166211890568941;-0.29494012763743727;-0.3861718022593566;-0.6074336396717672;-0.2582252972855473;-0.8058541171529092;0.11021651755577239;0.6719109976127557;-0.6459890966527109;-0.8793056268754196;-0.8775502145584053;-0.7619190359226189;-0.23777463231868004;0.035355562902310234;-0.34238435313565624;-0.8218452261376735;0.9852778085618554;0.9137099670822264;0.876600988628665;0.9715356029276048;0.21319156623632432;0.9698420125129046;0.8063848374032214;0.7878117126178872;-0.10909142332453683;-0.5352247222144294;0.7340788186783347;0.10931478032616981;-0.7784212834988173;0.4522133836804325;0.9481515117216621;-0.18719951711314678;0.872900321251894;-0.16808341083363015;0.10462043825569207;0.14653688774747295;-0.15727764311711606;-0.69203616395795;-0.7976626741544223;-0.31522248427108224;0.28139320821312697;0.14815827816840615;-0.4095266205459432;-0.4386668948848493;-0.5109448443827055;0.43480375271769106;-0.279955078599267;-0.4850688826967036;0.19454997559415335;-0.8983183641879078;0.05487269510157323;0.8507958382587647;0.7890598744018189;-0.19159502651791677;0.36285335583941697;-0.45466145159872406;-0.9354835172783009;-0.8097374693793937;0.33291378513879594;0.449680395656101;0.5360214985028313;-0.23372907270266507;-0.27787418953077025;0.8686155486413976;0.6353695660443082;-0.24314394598628272;0.3367586237830802;0.12251687266923643;0.7243386723945854;-0.8939716808663178;0.2118919716565484;-0.7973373194794399;0.6096815185832428;-0.9561531903945517;0.08466194712372027;0.37696519806716894;-0.7380090990026643;-0.5164498799947714;-0.2464561373158387;0.32596482090442075;-0.44944522250776575;0.7345442777400646;0.0030873939468743076;0.20136830330079084;-0.8873514011546613;-0.6818075952060403;-0.3995341461666944;-0.43644506491808427;-0.944585073671639;-0.7966941821822636;0.26932209166231674;-0.48265491790822956;-0.5724719963072378;-0.3459805245900948;-0.753394629636484;-0.5495591376650184;-0.5669567733625339;-0.809740896231997;0.17120575575422256;0.227076129457109;0.6009778579254601;0.7484097849056677;0.18034740105970673;-0.5984150023271696;-0.20235889794248677;-0.2606116650156977;0.4561732821135169;0.701677261302155;-0.7920933813004511;-0.24619192497274653;-0.33992888818335837;-0.5161304724180588;-0.8050459302356145;0.02313883915725446;0.5232259165781348;0.18570618374197226;-0.05594192448280522;-0.9658125956480648;-0.8960639416866913;-0.33040854606953357;0.7254014815937466;-0.01801320657469306;0.7933521005796176;-0.24934957187491105;0.4490297371997771;-0.7859536302110688;0.2698844954041311;-0.14279240734514875;-0.21128175775512648;-0.5795213826202776;-0.43893237324255746;0.45710116420975033;-0.670579141983652;-0.5522501960452735;0.31796767569634593;-0.9602021845645621;0.12562949373724455;-0.884232980943316;0.1428061616240415;-0.33907650712570464;-0.6090905580422374;0.22205068881910073;-0.9631404044764857;-0.8992757941637874;0.8369148484324;0.1786822106673778;-0.46482469494600515;-0.4390215593989873;0.6157704881415025;-0.48020902235762036;-0.9352664588297183;-0.5065528717228204;0.32760250477085656;-0.19914513420362204;0.2955968236553989;0.2907684170011559;0.8536854238555976;-0.9426652685333623;-0.22450334469194044;-0.26604637128820746;-0.6341976298077001;-0.3843794026052138;0.8608957348368096;0.13925692943098864;-0.3488647203194919;-0.4756668164461875;0.17400784228891844;-0.35364715920080725;0.6387975308455229;0.7532825277442552;0.26208264941797205;0.6740967173713555;-0.23790673992075023;-0.5393617815900147;-0.9178477270016976;-0.5814001208520954;0.6174277599231554;-0.36348110867814154;0.6760300609482797;-0.34868388145935403;0.6186703852017945;0.2795384591886347;0.925903932210695;-0.3193453752540125;-0.778682460410592;-0.4172313080998797;-0.8258696847064214;-0.5845962438104705;-0.9909564834393307;0.389181610647967;0.45233875229053233;0.3856713907725246;0.34340872722530186;0.31150092064246443;-0.3658476690876993;0.5264882877770929;-0.5077207455229227;0.5440482831727599;-0.8733189189636106;-0.5680013132854373;0.532196648094508;-0.16686644004026843;-0.8657770325129162;-0.3109366280547634;0.187933529830482;0.7156004387890826;0.11574395726187348;-0.7498824347167674;0.7919281661107167;0.6710115074743779;-0.609677467489014;-0.6644331848747553;-0.8852694151511016;-0.7190531390789872;-0.2990286917815486;0.2508822070363721;-0.01793432170421018;-0.7515891224690354;-0.5159669757785128;0.4661660699037475;0.8791517989799211;-0.13248567830689062;-0.5187589176291676;0.7579948967449119;0.6714098264530118;-0.5284446816621613;0.9079711983358181;-0.0916139206546367;0.8070724066893591;-0.2845778098300124;0.6025232453182503;-0.5695281534043249;-0.025762012124129322;0.21850016817234233;0.22082105447029785;-0.3435132876523363;0.5575332394960275;0.3266574344883924;-0.7981533743463596;0.19274728421018986;-0.7618143918117188;-0.8227650182202622;0.4273391625899449;-0.3345051312230704;-0.5010565154085411;0.36036396643783;-0.12991843653521074;-0.6822957297407255;0.9523836917238092;-0.3484304108896695;0.6069910334411708;0.45930624003808856;0.490142753010039;0.2732357812100181;-0.0498347752272126;0.6062587617069446;-0.884652430000807;-0.24964925776422964;0.14477909227210456;0.07470201769485958;-0.9263982892539333;-0.6063930404900004;-0.6015645089553547;-0.07488935109342396;0.16925917891816528;0.2657594791269212;0.39677845426011343;0.8478511807338505;-0.8044418438435357;0.08148276977429937;0.8528559955550419;-0.38326731752994386;0.2944867534956031;-0.5819562769567357;-0.8852695618507385;-0.8292217439460632;-0.32652685272953724;-0.37947999916681135;0.2124470641713364;-0.7952975856964699;-0.7788249391089166;0.3917481296373702;0.8864502423157439;-0.2513870282646546;-0.7816882789919886;0.5240232478144378;0.5248703492062853;-0.258888291838548;0.6978849527406947;-0.2812686854062488;-0.3676436127391474;-0.21819577182041353;-0.5035389298142561;0.8166029940674093;-0.9036736628143922;-0.7848846088967568;-0.4372022341610454;0.6325889284718753;-0.17431367779339796;-0.6724346182575869;0.976840887111696;0.18790081805433423;0.04276733164351653;-0.6356189179997793;-0.48353406563171186;0.27201045750266;0.2903564264363989;-0.9175170010111033;-0.23683007498938694;-0.452733499129026;-0.7804929302947528;-0.31450070160021565;0.27843532184911307;0.11590417467339362;0.0753434667183134;-0.25353517294306005;0.45040024989028504;0.11618485465152428;-0.011756313463835735;0.3265431744289503;-0.6388085881745525;0.19903299992218118;0.5364036968258501;-0.2547158300203188;-0.8680149788788776;-0.40243304682145964;-0.9586257884960123;-0.3513355169519989;0.6026991914118658;-0.28520153843373075;0.26590200290834914;0.32637920627358824;0.24797015434166492;0.9922239067021207;-0.2735960793553413;0.8747152487105355;-0.8311376754028508;-0.8513299736916381;0.4813475487459964;-0.9289745614926941;-0.16087439724550098;0.980427513915658;1.0132925259088827;0.6030570681282806;0.03845721746043292;-0.6281438111693829;-0.5268291553722156;0.6098661451578582;0.905670594557627;-0.25409194945709745;-0.5403571158333025;0.5435380171568487;0.17540293775793178;0.8788761502726217;-0.24928125338980114;-0.1886442621811296;0.5664890526977823;0.01665146141068672;-0.45870877347452893;-0.5682550079572126;-0.4952339684718762;-0.26871130120896547;-0.034809373492980855;-0.39360280972127654;-0.26957830336456284;0.6404369747379348;0.8902292095344957;0.1503554448449361;-0.09261631182506287;-0.5380327099142548;-0.03964730095952793;0.9770141729256863;-0.5037407613893375;-0.11448528672010999;-0.22130392639019603;-0.9503738386754306;-0.7108799240551225;0.7142738288307295;-0.8363875420343467;0.5102538102434768;0.48887999750607986;-0.07000817290717354;0.20116864711520172;0.23718680143087517;0.5233596067824517;0.736397230815605;0.3189760007788702;0.6514534884794345;0.23620988604683613;0.6304600149251457;-0.15988710129263775;0.9622289665648641;0.5598562094153656;0.5375612035158039;0.43557015637186813;0.4954670246652983;0.6443719144041473;-0.12290364208605309;0.9392964419545804;-0.7334443496747363;-0.3433206336981624;0.7992822527656029;-0.21069990310593814;-0.3720058760311324;-0.5703513587441421;0.16380182537965937;0.3191246116991866;-0.8713719816612531;0.9459900732659186;-0.13085454508495653;-0.8850793090681708;-0.2316811438573753;0.6708884783140249;0.43082311660272943;-0.754372206694709;0.3020522021690281;0.3751436349566028;0.6581486715822953;0.7603354251391508;0.5486052392720353;0.13539741498587374;0.6410911650333475;0.5871396806479052;0.21206249165018146;-0.8844772409063426;0.555009219707421;0.7998274824602511;0.6844319715201381;-0.2625599720038624;0.8805660899783112;-0.8700370844277623;-0.5894349574625637;0.1862471407022415;0.34743495719666556;-0.9325703397238343;0.7154629284696733;0.28048138917831617;-0.32698920923580227;-0.8338520926952853;0.525140086012968;-0.5878477526901608;0.597253133592327;-0.6385205097890849;-0.13954596590698284;-0.5021604404409634;0.387391241246335;-0.377286542538827;-0.45391041885570627;-0.16689523360350833;-0.4781221851801471;-0.742265527082814;0.8878184000826457;0.19420967483227478;0.6250005169806641;0.4678993926081627;0.04294376846198866;-0.23866264231706405;0.6513334994412396;-0.7932201800806844;0.7050569648049256;-0.7660708382037407;0.9408594274699149;-0.41508709588195514;-0.3072808957520161;0.616608313761486;-0.5968293034795082;0.7609164290679562;0.3910257071506168;0.35544939226552125;0.008142678275982262;-0.6946886168337179;0.9413874502066324;0.8301271335133306;-0.5766953883322583;0.43329240761336735;-0.8560284322795861;0.5822800760536806;-0.7670481001951386;-0.7536363924232108;-0.8025291215277905;0.14267185304148097;0.7897843616405946;0.6626930653991465;0.8741420584454964;-0.7137418649821845;0.27847381070609684;-0.19733704921631712;0.5237020903803481;0.9314191704290595;-0.8027628114829728;0.04349631457991646;0.7244687510487307;0.12823982110706736;0.3352917527400309;-0.7789489924599093;-0.8768901240360638;-0.5130763974346012;-0.10812480715226806;0.18878252584550914;0.25858307811182824;0.0023499229054258146;-0.5124661844920881;-0.412155378990633;-0.4773944654069518;-0.49256564989496665;-0.551100448402394;0.33194538381291316;-0.36818944868667663;-0.5263443256418519;-0.4241701923635975;-0.3297823665482183;-0.6645161008885396;0.5996932171282001;0.10708162425632521;0.3843158561987576;-0.11674824579801817;-0.7030938699344955;-0.25468625025804464;0.8666728970179808;-0.9034187837039871;0.545740960755625;-0.6787011032197682;-0.6020329160795872;-0.9514605337004807;-0.8037906711799228;0.8213227797591749;-0.7893323258641113;0.8736868074510139;0.9434687353496651;0.7089085116472036;-0.48979081944121283;-0.20821144887189144;0.27443578471096713;-0.20094366205906408;-0.9587293447024681;-0.8132356944814527;0.9042314662241251;-0.19474036473360207;0.03488026472146533;-0.15274769809937622;-0.3389250237573355;-0.37663848346112305;1.0096786651227019;0.1725203435752203;0.5532493731450705;-0.3411965929584202;-0.20382038370754926;-0.8765914311663621;0.21538881584117317;-0.885959609602393;-0.7288343964213506;-0.1853607481044833;0.23337732623490373;-0.6860923920513977;0.0567032433264813;-0.7586765425446667;-0.21186845203239968;0.8129246879726442;-0.7897928203460394;0.30018777184952156;0.029369991823696536;-0.4445603236381558;-0.3859520461838497;0.05290954002594173;0.38160230020741137;0.5591578311358651;0.9645167380999426;-0.4026926612832155;-0.5700535653659287;0.48797278032709424;-0.7131141114880022;0.5863692993395606;-0.3860195624501555;0.8852900374161499;0.7413457860342136;-0.7464173389949251;-0.6324580194678935;-0.4732743130147635;-0.2635322092579216;0.7886347853387528;-0.8610845296787137;-0.5026428739347608;-0.44668813673440905;0.9844702467802144;-0.18162206554566138;-0.4769365041868135;0.4759315346049063;0.41877873588093345;-0.5806725098468988;0.7402556112386008;0.8069886258199084;0.9844312884091859;-0.2886491222274003;-0.6151539874282916;-0.9933678943511304;-0.334172403476007;0.910482486149353;0.13671855936732355;0.8253556082371414;-0.7720832083548549;0.22408096923881968;-0.8342876306521563;-0.8075697872242105;-0.6886217236351475;-0.03980210500060699;-0.6364248070724378;-0.44517936071603337;-0.4652901334367198;-0.6873390499612277;-0.5698938640879663;-0.8308233084418921;0.4638939076638446;-0.7361265040542835;0.380168716246742;0.6666144344111073;0.9762878015849288;-0.2435576571498388;-0.5001267306207148;0.7775656855873585;0.6461617260637911;0.4123507662383604;-0.9556432784652893;-0.07578708262726186;-0.34424590515498765;-0.8805707023767235;-0.22785209922150887;-0.3901874100047425;-0.2738096953190957;0.7977766418802794;-0.6495400504386122;0.9892955777280982;0.5037272514586171;0.09329033438299704;0.36270355212960764;-0.7431569193420534;-0.8620013192363971;-0.2478934513599898;-0.22281264251451408;0.451414758978882;-0.742446475950495;0.39923984123706735;0.20747689966707503;0.23439678417300322;0.4317806351717505;-0.45639208580401985;-0.08407311413425818;-0.21446604941155203;0.8952945040069361;-0.7190565602128081;1.0022003437295899;0.38278128953776464;-0.5602995333367041;-0.5015956917608773;0.7681105650808269;-0.5389426598615392;0.9221014500333993;-0.27707597363167114;-0.7359455386106355;0.15339120693003674;0.053065966433698895;-0.7771819362284278;0.17004792330548785;-0.19813812785607596;0.009455000277011844;0.1098673521970571;0.04847453831226042;0.5274981673358449;-0.46012984956356606;0.37647843144261;-0.8282831816211829;0.24518338817861338;0.4710668534075829;0.23945961419038886;-0.5982982652514925;-0.5436712664087382;0.09976573403547612;-0.15975258663736597;0.6271575646469458;0.4564208119589569;-0.3503282592927163;-0.05245573076496362;-0.5056795045163185;-0.21107239392905386;0.3677471388040757;0.5681651806620793